,chain_ERCcv_lasso,chain_ERCcv_lr,chain_ERCcv_mean,chain_ERCcv_rf,global_bag,global_rf,local_lasso,local_lr,local_mean,local_rf
chain_ERCcv_lasso,1.0,1.0,0.327,0.857,1.0,1.0,1.0,1.0,0.327,1.0
chain_ERCcv_lr,-1.0,1.0,-1.0,-0.592,-0.653,-0.602,0.082,0.061,-1.0,-0.622
chain_ERCcv_mean,-0.327,1.0,1.0,0.857,1.0,1.0,1.0,1.0,0.0,1.0
chain_ERCcv_rf,-0.857,0.592,-0.857,1.0,-0.061,-0.092,0.816,0.724,-0.857,0.051
global_bag,-1.0,0.653,-1.0,0.061,1.0,-0.173,0.857,0.745,-1.0,0.122
global_rf,-1.0,0.602,-1.0,0.092,0.173,1.0,0.857,0.755,-1.0,0.255
local_lasso,-1.0,-0.082,-1.0,-0.816,-0.857,-0.857,1.0,-0.031,-1.0,-0.806
local_lr,-1.0,-0.061,-1.0,-0.724,-0.745,-0.755,0.031,1.0,-1.0,-0.694
local_mean,-0.327,1.0,-0.0,0.857,1.0,1.0,1.0,1.0,1.0,1.0
local_rf,-1.0,0.622,-1.0,-0.051,-0.122,-0.255,0.806,0.694,-1.0,1.0
