,chain_ERCcv_lasso,chain_ERCcv_lr,chain_ERCcv_mean,chain_ERCcv_rf,global_bag,global_rf,local_lasso,local_lr,local_mean,local_rf
chain_ERCcv_lasso,1.0,0.398,-1.0,0.612,0.337,0.378,0.765,0.357,-1.0,0.49
chain_ERCcv_lr,-0.398,1.0,-0.857,0.071,-0.071,-0.061,0.214,0.061,-0.857,-0.082
chain_ERCcv_mean,1.0,0.857,1.0,1.0,1.0,1.0,1.0,0.857,0.0,1.0
chain_ERCcv_rf,-0.612,-0.071,-1.0,1.0,-0.296,-0.316,0.245,-0.01,-1.0,-0.173
global_bag,-0.337,0.071,-1.0,0.296,1.0,-0.051,0.48,0.194,-1.0,0.184
global_rf,-0.378,0.061,-1.0,0.316,0.051,1.0,0.48,0.153,-1.0,0.143
local_lasso,-0.765,-0.214,-1.0,-0.245,-0.48,-0.48,1.0,-0.143,-1.0,-0.378
local_lr,-0.357,-0.061,-0.857,0.01,-0.194,-0.153,0.143,1.0,-0.857,-0.051
local_mean,1.0,0.857,-0.0,1.0,1.0,1.0,1.0,0.857,1.0,1.0
local_rf,-0.49,0.082,-1.0,0.173,-0.184,-0.143,0.378,0.051,-1.0,1.0
